{"sizes":[3,3,14,14],"layers":[{"red":{},"green":{},"blue":{}},{"0":{"bias":-4.138543605804443,"weights":{"red":11.770249366760254,"green":13.973634719848633,"blue":0.21172034740447998}},"1":{"bias":-5.104259014129639,"weights":{"red":9.148614883422852,"green":3.550133228302002,"blue":47.54438400268555}},"2":{"bias":5.9833245277404785,"weights":{"red":-4.832757472991943,"green":-42.580230712890625,"blue":-0.9098492860794067}}},{"0":{"bias":4.32548189163208,"weights":{"0":1.0428346395492554,"1":-13.943282127380371,"2":-6.943026065826416}},"1":{"bias":-0.7670968174934387,"weights":{"0":1.1725530624389648,"1":-15.46790599822998,"2":-8.01042366027832}},"2":{"bias":6.451624870300293,"weights":{"0":-25.473955154418945,"1":27.315147399902344,"2":-26.123180389404297}},"3":{"bias":13.977633476257324,"weights":{"0":21.16773796081543,"1":8.787313461303711,"2":-30.09014320373535}},"4":{"bias":0.7427425980567932,"weights":{"0":5.8059468269348145,"1":-43.97690200805664,"2":4.00861120223999}},"5":{"bias":-22.73011016845703,"weights":{"0":-1.2781771421432495,"1":-11.585672378540039,"2":29.520267486572266}},"6":{"bias":10.371065139770508,"weights":{"0":0.6630779504776001,"1":-16.299591064453125,"2":-16.671117782592773}},"7":{"bias":-8.536231994628906,"weights":{"0":27.34038734436035,"1":-24.695100784301758,"2":-13.865816116333008}},"8":{"bias":0.45740440487861633,"weights":{"0":12.449342727661133,"1":-0.7990668416023254,"2":-30.3814640045166}},"9":{"bias":5.991203784942627,"weights":{"0":-5.492468357086182,"1":-13.46562671661377,"2":-11.44096565246582}},"10":{"bias":14.97701358795166,"weights":{"0":-10.523310661315918,"1":-26.64396858215332,"2":5.447272300720215}},"11":{"bias":-8.523531913757324,"weights":{"0":25.690532684326172,"1":-30.949684143066406,"2":11.14391803741455}},"12":{"bias":1.244459867477417,"weights":{"0":-4.362508296966553,"1":-5.772179126739502,"2":-27.07539939880371}},"13":{"bias":13.331307411193848,"weights":{"0":-15.168733596801758,"1":-12.646943092346191,"2":-8.3256196975708}}},{"indigo":{"bias":-2.578679084777832,"weights":{"0":1.097758412361145,"1":8.005592346191406,"2":-2.15299391746521,"3":0.2451830953359604,"4":-2.8600986003875732,"5":-1.2792011499404907,"6":-0.05612824112176895,"7":-1.395380973815918,"8":1.9511849880218506,"9":-2.924487590789795,"10":0.24198473989963531,"11":-10.711337089538574,"12":-7.187734603881836,"13":-5.407350540161133}},"orange":{"bias":-1.701919436454773,"weights":{"0":-6.88655424118042,"1":-2.8436756134033203,"2":-4.032262802124023,"3":-15.359556198120117,"4":-11.888894081115723,"5":-9.196739196777344,"6":1.5208313465118408,"7":17.230201721191406,"8":4.089706897735596,"9":0.6238988637924194,"10":3.312267303466797,"11":-3.6213183403015137,"12":-1.1216470003128052,"13":7.451756477355957}},"green":{"bias":-11.457192420959473,"weights":{"0":2.0307371616363525,"1":8.866216659545898,"2":10.055485725402832,"3":10.269298553466797,"4":1.5693016052246094,"5":16.730846405029297,"6":-2.874199628829956,"7":13.365413665771484,"8":-10.558725357055664,"9":6.388769149780273,"10":-15.86214542388916,"11":-6.131267547607422,"12":-3.525878429412842,"13":3.589512348175049}},"blue":{"bias":-2.950699806213379,"weights":{"0":-0.9897422790527344,"1":3.4887728691101074,"2":-7.510748863220215,"3":1.944059133529663,"4":-6.5652265548706055,"5":0.8609923720359802,"6":3.871830940246582,"7":-15.494189262390137,"8":6.146936893463135,"9":2.6419320106506348,"10":8.629591941833496,"11":-7.682082653045654,"12":1.973478078842163,"13":-9.591672897338867}},"brown":{"bias":-6.579827308654785,"weights":{"0":2.1451475620269775,"1":0.4587804079055786,"2":2.7495720386505127,"3":-2.7003185749053955,"4":-4.403757572174072,"5":-2.8238041400909424,"6":-8.707690238952637,"7":-0.947964608669281,"8":4.234198570251465,"9":1.407684564590454,"10":-8.482436180114746,"11":-4.128784656524658,"12":13.180496215820312,"13":0.313841313123703}},"red":{"bias":-3.615302324295044,"weights":{"0":-1.9004197120666504,"1":-0.9292687177658081,"2":-8.471736907958984,"3":0.41272905468940735,"4":-3.203763723373413,"5":-0.10595593601465225,"6":-3.6107430458068848,"7":-3.4233179092407227,"8":9.53571605682373,"9":-2.192169666290283,"10":-2.3047561645507812,"11":-16.637283325195312,"12":-3.3801233768463135,"13":-6.428066730499268}},"yellowgreen":{"bias":-5.694031715393066,"weights":{"0":5.136377334594727,"1":2.670914888381958,"2":1.8662000894546509,"3":-5.789510726928711,"4":-10.472697257995605,"5":-2.0658061504364014,"6":-5.984851837158203,"7":-5.973259925842285,"8":6.728976249694824,"9":10.28039836883545,"10":-4.274632930755615,"11":6.423505783081055,"12":10.831249237060547,"13":-1.4819927215576172}},"purple":{"bias":-11.245060920715332,"weights":{"0":-5.099975109100342,"1":-3.550497531890869,"2":1.432385802268982,"3":-3.746091842651367,"4":26.403554916381836,"5":-15.589903831481934,"6":-6.663381099700928,"7":-2.871614694595337,"8":11.226901054382324,"9":-7.584841251373291,"10":-5.005622386932373,"11":22.823991775512695,"12":-1.1621898412704468,"13":-0.6457974910736084}},"pink":{"bias":-11.404603004455566,"weights":{"0":-7.775415420532227,"1":-5.871629238128662,"2":4.719073295593262,"3":1.8190486431121826,"4":-13.104402542114258,"5":-0.6431124806404114,"6":1.9988058805465698,"7":-1.6424837112426758,"8":2.7034354209899902,"9":-5.325765132904053,"10":3.9662325382232666,"11":0.1892644315958023,"12":-8.472336769104004,"13":3.5820891857147217}},"black":{"bias":-3.038682222366333,"weights":{"0":-1.0985393524169922,"1":-0.6335257291793823,"2":-0.19713357090950012,"3":0.1677580624818802,"4":-1.8826875686645508,"5":-8.006904602050781,"6":-0.7266082167625427,"7":-3.047877788543701,"8":-0.454114705324173,"9":-0.05659069865942001,"10":-2.2498884201049805,"11":-2.2244808673858643,"12":-4.038992881774902,"13":1.2127532958984375}},"gray":{"bias":4.1514573097229,"weights":{"0":-1.2265217304229736,"1":-0.5268269181251526,"2":-3.301478147506714,"3":-6.930012226104736,"4":-1.6263980865478516,"5":1.2400472164154053,"6":-1.9731297492980957,"7":-1.9139659404754639,"8":2.5370421409606934,"9":-1.0899840593338013,"10":-6.917038917541504,"11":-5.083014965057373,"12":1.0424606800079346,"13":-3.4089889526367188}},"yellow":{"bias":-5.7334442138671875,"weights":{"0":-1.4287278652191162,"1":-0.8983921408653259,"2":-0.36822378635406494,"3":-0.3138158619403839,"4":-1.2236689329147339,"5":-1.9179800748825073,"6":-0.9511557221412659,"7":-0.1486964225769043,"8":1.2685997486114502,"9":-0.9620038270950317,"10":-1.3514491319656372,"11":-1.989527940750122,"12":-0.9927287101745605,"13":-1.220863699913025}},"teal":{"bias":0.6633355021476746,"weights":{"0":0.16898062825202942,"1":1.5791125297546387,"2":-19.04591941833496,"3":-11.088988304138184,"4":-2.329551935195923,"5":-18.621023178100586,"6":0.8038950562477112,"7":0.8896093368530273,"8":3.6202430725097656,"9":-0.007075001951307058,"10":-2.989423990249634,"11":-6.734017848968506,"12":0.9157876372337341,"13":-1.0993057489395142}},"white":{"bias":-2.800346851348877,"weights":{"0":-1.4112615585327148,"1":-1.027851939201355,"2":-5.0523786544799805,"3":-4.582938194274902,"4":-1.4643142223358154,"5":-1.0396332740783691,"6":-1.112467885017395,"7":-1.3178441524505615,"8":-2.046618700027466,"9":-1.3431999683380127,"10":-2.0417301654815674,"11":0.08407196402549744,"12":-1.2918648719787598,"13":-1.8232158422470093}}}],"outputLookup":true,"inputLookup":true,"activation":"sigmoid","trainOpts":{"iterations":20000,"errorThresh":0.005,"log":false,"logPeriod":10,"learningRate":0.3,"momentum":0.1,"callbackPeriod":10}}